5 100
the -0.0017043 -0.0035198 -0.0018776 0.00063607 0.00011277 -0.0020004 0.0046038 0.0016864 0.00035028 0.0033621 0.00039749 -0.00064278 -0.0032284 0.0031605 8.5452e-05 0.0024773 0.0042346 0.0017829 -0.003949 -0.002378 -0.00015093 0.0024773 -0.0013643 -0.0015185 0.0044627 0.00081789 -0.00058987 0.0033513 0.0035277 0.00096744 0.00047059 0.00093655 -0.0047549 0.00029968 -0.0042963 -0.0018758 0.00024702 0.0012321 -0.0015115 -0.0017732 0.002593 0.0021056 -0.0017034 0.0001569 0.0033617 0.0013658 -0.0024778 -0.00093757 0.0020157 0.00075324 -0.0026864 -8.4898e-05 -0.002417 -0.002655 0.0024934 -0.0014515 0.0030386 0.00083027 -0.0012287 -0.0013093 -0.0033787 0.0016478 0.0010072 -0.00069292 0.0038982 0.0009651 -0.00056738 0.00039065 0.002641 0.0030723 -0.0017493 -0.0010993 -0.0020427 0.0016738 0.005449 -0.0012514 0.002509 0.00031696 -0.00059035 -0.0013635 -0.005561 0.00070887 0.0033779 -0.0013057 -0.0003977 0.0020045 0.0016481 -0.0025701 -7.2485e-05 0.0020058 0.0025468 -0.0017867 0.0027125 -0.0021805 0.0023173 -0.0021173 -0.00022019 0.0016418 0.00013928 -0.0037976 
</s> 0.0023715 0.0050925 0.0083228 -0.0092901 0.0066157 0.0080711 -0.0065215 0.0013229 -0.0034214 -0.0021112 -0.00073 -0.0063238 -0.004873 0.0021977 -0.0060954 -0.0071877 0.0033833 0.0060262 -0.0069002 -0.00055556 -0.0048608 0.009888 0.0039406 0.006946 -0.0086182 -0.0061819 -0.0098192 -0.0012326 -0.0022438 -0.0073049 -0.0050047 -0.00074628 0.0039763 -0.0058512 -0.0063742 -0.0021075 -0.0071531 0.0043135 -0.00053265 -0.0027386 -0.010008 0.0094354 -0.0051661 0.0030651 0.0088134 0.0019417 0.0081098 -0.0033749 -0.0039152 0.0035284 -0.00099313 -0.0018283 0.0023805 0.0048747 -0.0090696 0.0035286 -0.009646 0.00067912 0.0087728 -0.002431 -0.00017733 0.003512 0.0056977 0.0078825 0.0045325 -0.0035505 -0.0070789 -0.0052629 -0.0057673 -0.0057375 0.0015921 0.0050534 0.0058431 -0.0073479 -0.0024166 -0.0025408 -0.0038984 0.0028916 0.0065084 0.0056441 0.00052133 -0.0058115 0.0026752 0.0027678 0.0048187 0.0036059 -0.0020112 -0.0098323 -0.0047224 0.0072552 0.0028978 0.00251 0.0025323 0.0017983 0.0093302 0.0022842 -0.00065796 0.0024004 -0.0068032 -0.0071211 
- 0.0010647 -0.0037527 -0.00014946 -0.0010919 -0.0019187 -0.0078014 -0.0078594 -0.0030107 0.0029239 0.0028524 -0.0056523 0.0028951 -0.0015783 -0.0022931 -0.0044905 0.0014115 0.0011729 -0.00061519 -0.0033686 0.0025426 0.0062861 -0.0050656 -0.0052266 -0.00042077 0.001074 0.0010317 0.0050477 -0.0093574 -0.0071215 -0.0014591 0.0017473 0.0052809 -0.00028979 -0.00065186 -0.0035211 -0.00082897 -0.0022971 0.0013146 0.0015959 0.0024024 -0.0066014 -0.0020852 -0.0024142 -0.0028986 0.0039324 0.0035361 0.0085831 0.0030108 0.0036705 -0.00094603 0.0036146 0.0026962 0.0031432 -0.0023856 -0.0045056 0.0040677 0.0013726 -0.0032502 -0.0032276 -0.0018414 0.00033301 0.0011437 0.001013 0.0050348 -0.003782 0.003838 0.0017956 0.0033284 0.0036222 -0.0058865 0.003102 -0.0027388 0.0063273 -0.004789 -0.0049033 -0.0032863 0.0057063 -0.0061837 0.0074801 -0.0033757 0.006269 0.00067345 -0.0026598 -0.0069045 0.0038742 -0.0059152 3.1824e-05 0.0065278 0.0077089 -0.0049986 -0.0041199 0.0019129 0.0053077 0.0020244 0.0013514 -0.005438 -0.0050279 -0.0019601 0.0045675 0.0079123 
of -0.0039457 0.0024829 -0.00098522 -0.0021257 0.0012521 0.004549 -0.0024413 -0.0009996 0.0021272 -0.0026943 -0.00037981 0.0017483 -0.0035102 -0.0019698 -0.0013426 -0.0031382 -0.0027361 -0.0035827 -0.00021204 0.0020573 0.0020537 0.0043907 -0.0053801 -0.0014985 -0.00049256 -0.0041164 0.0025009 0.0017786 -0.0026893 -0.0017797 0.002413 0.0023143 0.001571 0.0049705 -0.00053759 0.0024427 0.0030362 -0.0020325 1.8322e-05 0.0056076 0.0043045 -0.0021074 -0.0014075 -0.0035399 -0.0030312 0.00078563 -0.00086016 -0.0033285 -0.0012895 0.0053898 -1.7013e-05 -0.0042865 0.00047038 -0.0030553 0.0017119 -0.0023128 -0.0015888 -0.0010682 0.0032637 0.004306 -0.0064247 -0.0025926 0.0014482 -0.0039254 -0.0002956 0.002489 0.0043435 -0.00344 -0.0033811 -0.0059731 0.0044035 0.00047952 0.0031597 0.0015256 -0.0018605 0.00038522 -0.0012078 0.0036314 0.0063157 -0.0013756 0.0032075 0.0021354 0.00032576 -0.00073277 0.0059254 0.0040634 0.00061097 0.0033371 -0.00028693 -0.0032451 0.0065762 0.0036255 -0.0021942 -0.00036982 -0.0032988 -0.0023058 -0.0016068 -0.0040441 0.0030207 0.002282 
for -0.0010531 -0.0013784 -0.00098842 0.0055057 0.00076527 0.0035778 -0.0014555 -0.0022453 0.0017897 0.0014249 0.0047778 -0.00073195 -0.00096567 0.0011409 0.00025385 -0.001832 0.0028905 0.0013964 -0.00010615 -0.00018662 0.0013124 0.0016503 -0.002495 0.0014582 0.0011843 0.00032754 0.0033725 -0.00061245 -0.0031627 -0.0011695 0.00043021 -0.0019219 0.0024626 -0.0017769 0.0048015 0.0027743 -0.0016193 0.0023137 0.00024891 -0.0011976 -0.00085355 -0.0037056 -0.0010899 -0.0012768 0.0016065 -0.0010089 0.0022121 0.0010922 -0.0036148 0.0001843 0.00048691 -4.6091e-05 0.00094792 -0.0014314 0.0033209 0.00029807 0.0015066 -0.0023633 -0.0031699 0.0030605 0.0035927 -0.00011263 0.0032949 0.0019853 0.0046648 -0.00012732 0.0027298 -0.0011583 0.00029795 -0.003137 0.00095672 -0.0021847 -0.00090841 0.0017165 -0.0034056 -0.002895 0.0022025 -0.0019129 0.0010273 0.0010144 0.0004039 0.00038143 -0.0027345 0.00022069 -0.0043601 -0.0024241 0.0007344 0.0012425 0.0058861 -0.00029998 0.0055247 0.00019225 -0.00055003 0.00089417 -0.00063651 0.0015968 -0.0046705 -0.0011272 -0.00096123 -0.0022528 
